svm_type c_svc
kernel_type rbf
gamma 0.125
nr_class 2
total_sv 51
rho -1.88659
label 1 0
nr_sv 26 25
SV
1 6:1 
1 1:1 
1 6:1 
1 6:1 
1 6:1 7:0.33333333 
1 5:1 
1 6:1 
1 4:1 7:0.33333333 
1 5:1 
1 2:1 7:0.66666667 
1 3:1 
1 6:1 7:0.33333333 
0.6661123620984633 1:1 3:1 7:0.33333333 
1 1:1 
1 5:1 7:0.33333333 
0.7345289528493467 3:1 4:1 
1 3:1 
1 4:1 7:0.33333333 
0.07726382201791593 1:1 4:1 7:0.33333333 8:1 
1 4:1 7:1 
1 6:1 
1 5:1 
1 2:1 
1 1:1 
1 5:1 7:0.33333333 
1 5:1 
-0.607081660539564 
-1 
-1 
-1 
-1 
-1 7:0.66666667 
-1 
-1 7:0.33333333 
-1 7:0.33333333 
-1 
-1 7:0.33333333 
-1 
-1 
-1 7:0.33333333 
-1 7:0.33333333 8:1 
-1 7:1 
-1 
-1 7:0.33333333 
-1 
-1 
-1 
-1 
-0.8746290611159416 7:0.33333333 
-1 
-0.9961944153102202 
